{
  "timestamp": "2026-01-08T18:06:09.341169",
  "input_size": 6,
  "hidden_size": 12,
  "learning_rate": 0.01,
  "weights_input_hidden": [
    [
      0.22949188947677612,
      0.010388229042291641,
      0.06622465699911118,
      0.15609365701675415,
      -0.20915986597537994,
      -0.017523881047964096,
      -0.08401976525783539,
      -0.017417773604393005,
      0.2330666482448578,
      0.10942737013101578,
      0.06821150332689285,
      0.11898265779018402
    ],
    [
      0.03861388936638832,
      -0.06378059089183807,
      0.09664863348007202,
      0.09266708046197891,
      0.08832275867462158,
      -0.05092098191380501,
      -0.0036104656755924225,
      -0.05997059494256973,
      -0.06417886167764664,
      -0.09507431089878082,
      -0.13055621087551117,
      -0.13228730857372284
    ],
    [
      0.07403097301721573,
      -0.06976199895143509,
      0.043523311614990234,
      0.19858762621879578,
      -0.0374629981815815,
      0.008657100610435009,
      -0.0776686817407608,
      0.025223776698112488,
      -0.11708055436611176,
      0.0721854567527771,
      -0.016527289524674416,
      0.05400708690285683
    ],
    [
      0.15315058827400208,
      0.023138325661420822,
      0.04268334060907364,
      0.07721122354269028,
      -0.08459029346704483,
      -0.15721073746681213,
      0.14779064059257507,
      -0.16785860061645508,
      -0.10580737888813019,
      0.020706649869680405,
      -0.020077668130397797,
      0.016143057495355606
    ],
    [
      -0.01292983815073967,
      -0.052145373076200485,
      0.13222752511501312,
      0.23857003450393677,
      0.19853459298610687,
      0.06384792923927307,
      0.15274125337600708,
      0.03963474929332733,
      0.05087300017476082,
      0.14199846982955933,
      -0.03175937011837959,
      -0.09778515249490738
    ],
    [
      0.26936522126197815,
      0.1692662239074707,
      -0.00017798175395000726,
      0.1061486080288887,
      0.0946572944521904,
      -0.046466704457998276,
      -0.15070268511772156,
      0.1394805610179901,
      -0.03947483003139496,
      -0.043541595339775085,
      0.05538097396492958,
      -0.02562860958278179
    ]
  ],
  "bias_hidden": [
    [
      0.0989561378955841,
      -0.00878998078405857,
      -0.01078313123434782,
      0.1895418018102646,
      -0.025157278403639793,
      0.0,
      -7.253717922139913e-05,
      -0.0004036937025375664,
      0.0,
      0.04307582601904869,
      0.0,
      0.0
    ]
  ],
  "weights_hidden_output": [
    [
      -0.2638753652572632
    ],
    [
      0.12403098493814468
    ],
    [
      -0.05512794107198715
    ],
    [
      -0.40206682682037354
    ],
    [
      0.023490071296691895
    ],
    [
      0.07592111825942993
    ],
    [
      0.1155831590294838
    ],
    [
      -0.16183263063430786
    ],
    [
      0.13087475299835205
    ],
    [
      -0.09285073727369308
    ],
    [
      -0.15231859683990479
    ],
    [
      0.057361453771591187
    ]
  ],
  "bias_output": [
    [
      -0.823286771774292
    ]
  ],
  "training_history_count": 530,
  "epoch_losses": []
}