{
  "timestamp": "2026-01-14T05:44:03.824221",
  "input_size": 6,
  "hidden_size": 12,
  "learning_rate": 0.01,
  "weights_input_hidden": [
    [
      0.39386212825775146,
      0.010388229042291641,
      0.11048117280006409,
      0.3943153917789459,
      -0.20915986597537994,
      -0.017523881047964096,
      -0.08401976525783539,
      -0.017417773604393005,
      0.2330666482448578,
      0.16467665135860443,
      0.06821150332689285,
      0.11898265779018402
    ],
    [
      0.20298165082931519,
      -0.06378059089183807,
      0.14089836180210114,
      0.3308890759944916,
      0.08832275867462158,
      -0.05092098191380501,
      -0.0036104656755924225,
      -0.05997059494256973,
      -0.06417886167764664,
      -0.03984113410115242,
      -0.13055621087551117,
      -0.13228730857372284
    ],
    [
      0.23839879035949707,
      -0.06976199895143509,
      0.08778004348278046,
      0.43680909276008606,
      -0.0374629981815815,
      0.008657100610435009,
      -0.0776686817407608,
      0.025223776698112488,
      -0.11708055436611176,
      0.12743806838989258,
      -0.016527289524674416,
      0.05400708690285683
    ],
    [
      0.3175209164619446,
      0.023138325661420822,
      0.08694007992744446,
      0.3154330551624298,
      -0.08459029346704483,
      -0.15721073746681213,
      0.14779064059257507,
      -0.16785860061645508,
      -0.10580737888813019,
      0.07593758404254913,
      -0.020077668130397797,
      0.016143057495355606
    ],
    [
      0.15143845975399017,
      -0.052145373076200485,
      0.17647722363471985,
      0.47679129242897034,
      0.19853459298610687,
      0.06384792923927307,
      0.15274125337600708,
      0.03963474929332733,
      0.05087300017476082,
      0.19724811613559723,
      -0.03175937011837959,
      -0.09778515249490738
    ],
    [
      0.433735191822052,
      0.1692662239074707,
      0.0440765805542469,
      0.3443705141544342,
      0.0946572944521904,
      -0.046466704457998276,
      -0.15070268511772156,
      0.1394805610179901,
      -0.03947483003139496,
      0.011692122556269169,
      0.05538097396492958,
      -0.02562860958278179
    ]
  ],
  "bias_hidden": [
    [
      0.42769187688827515,
      -0.00878998078405857,
      0.07772606611251831,
      0.6659855246543884,
      -0.025157278403639793,
      0.0,
      -7.253717922139913e-05,
      -0.0004036937025375664,
      0.0,
      0.15353769063949585,
      0.0,
      0.0
    ]
  ],
  "weights_hidden_output": [
    [
      -0.8074870705604553
    ],
    [
      0.12403098493814468
    ],
    [
      -0.23340575397014618
    ],
    [
      -1.1506365537643433
    ],
    [
      0.023490071296691895
    ],
    [
      0.07592111825942993
    ],
    [
      0.1155831590294838
    ],
    [
      -0.16183263063430786
    ],
    [
      0.13087475299835205
    ],
    [
      -0.267148494720459
    ],
    [
      -0.15231859683990479
    ],
    [
      0.057361453771591187
    ]
  ],
  "bias_output": [
    [
      -1.4942253828048706
    ]
  ],
  "training_history_count": 506,
  "epoch_losses": [
    6.2435821746476e-05,
    6.243499228730798e-05,
    6.24340318609029e-05,
    6.243317329790443e-05,
    6.243234383873641e-05,
    6.243149982765317e-05,
    6.243061216082424e-05,
    6.242975359782577e-05,
    6.242885137908161e-05,
    6.242801464395598e-05,
    6.242711970116943e-05,
    6.242629751795903e-05,
    6.24253589194268e-05,
    6.24245367362164e-05,
    6.242364906938747e-05,
    6.23237356194295e-05,
    6.232284067664295e-05,
    6.232195300981402e-05,
    6.232115265447646e-05,
    6.232027226360515e-05,
    6.23193773208186e-05,
    6.231854058569297e-05,
    6.231758743524551e-05,
    6.231683073565364e-05,
    6.231595034478232e-05,
    6.231501174625009e-05,
    6.2314145907294e-05,
    6.231334555195644e-05,
    6.231242150533944e-05,
    6.231159204617143e-05,
    6.221187504706904e-05,
    6.221096555236727e-05,
    6.221007788553834e-05,
    6.220920477062464e-05,
    6.220839713932946e-05,
    6.220751674845815e-05,
    6.220660725375637e-05,
    6.220580689841881e-05,
    6.220491195563227e-05,
    6.220402428880334e-05,
    6.220315117388964e-05,
    6.220227078301832e-05,
    6.220145587576553e-05,
    6.220061186468229e-05,
    6.219966599019244e-05,
    6.210006540641189e-05,
    6.209924322320148e-05,
    6.209841376403347e-05,
    6.209753337316215e-05,
    6.209665298229083e-05,
    6.209577259141952e-05,
    6.20949431322515e-05,
    6.20940700173378e-05,
    6.209325511008501e-05,
    6.209231651155278e-05,
    6.209148705238476e-05,
    6.209060666151345e-05,
    6.208972627064213e-05,
    6.20888386038132e-05,
    6.208802369656041e-05
  ]
}