{
  "timestamp": "2026-01-20T15:47:35.067154",
  "input_size": 6,
  "hidden_size": 12,
  "learning_rate": 0.01,
  "weights_input_hidden": [
    [
      0.29420796036720276,
      0.010388229042291641,
      0.28299450874328613,
      0.031255073845386505,
      -0.20915986597537994,
      -0.017523881047964096,
      -0.08401976525783539,
      -0.017417773604393005,
      0.2330666482448578,
      0.08024178445339203,
      0.06821150332689285,
      0.11898265779018402
    ],
    [
      0.10332519561052322,
      -0.06378059089183807,
      0.31342917680740356,
      -0.03217114880681038,
      0.08832275867462158,
      -0.05092098191380501,
      -0.0036104656755924225,
      -0.05997059494256973,
      -0.06417886167764664,
      -0.12425689399242401,
      -0.13055621087551117,
      -0.13228730857372284
    ],
    [
      0.13874223828315735,
      -0.06976199895143509,
      0.26029327511787415,
      0.07374901324510574,
      -0.0374629981815815,
      0.008657100610435009,
      -0.0776686817407608,
      0.025223776698112488,
      -0.11708055436611176,
      0.04299560561776161,
      -0.016527289524674416,
      0.05400708690285683
    ],
    [
      0.21786728501319885,
      0.023138325661420822,
      0.25945335626602173,
      -0.04762742668390274,
      -0.08459029346704483,
      -0.15721073746681213,
      0.14779064059257507,
      -0.16785860061645508,
      -0.10580737888813019,
      -0.00847911462187767,
      -0.020077668130397797,
      0.016143057495355606
    ],
    [
      0.051781702786684036,
      -0.052145373076200485,
      0.3490079641342163,
      0.11373123526573181,
      0.19853459298610687,
      0.06384792923927307,
      0.15274125337600708,
      0.03963474929332733,
      0.05087300017476082,
      0.11281339079141617,
      -0.03175937011837959,
      -0.09778515249490738
    ],
    [
      0.33408087491989136,
      0.1692662239074707,
      0.21659253537654877,
      -0.018689438700675964,
      0.0946572944521904,
      -0.046466704457998276,
      -0.15070268511772156,
      0.1394805610179901,
      -0.03947483003139496,
      -0.07272365689277649,
      0.05538097396492958,
      -0.02562860958278179
    ]
  ],
  "bias_hidden": [
    [
      0.22837896645069122,
      -0.00878998078405857,
      0.4227578938007355,
      -0.06013493239879608,
      -0.025157278403639793,
      0.0,
      -7.253717922139913e-05,
      -0.0004036937025375664,
      0.0,
      -0.015295672230422497,
      0.0,
      0.0
    ]
  ],
  "weights_hidden_output": [
    [
      0.484362930059433
    ],
    [
      0.12403098493814468
    ],
    [
      0.7930397987365723
    ],
    [
      -0.0767548531293869
    ],
    [
      0.023490071296691895
    ],
    [
      0.07592111825942993
    ],
    [
      0.1155831590294838
    ],
    [
      -0.16183263063430786
    ],
    [
      0.13087475299835205
    ],
    [
      -0.01002900954335928
    ],
    [
      -0.15231859683990479
    ],
    [
      0.057361453771591187
    ]
  ],
  "bias_output": [
    [
      1.267938256263733
    ]
  ],
  "training_history_count": 1,
  "epoch_losses": []
}