{
  "timestamp": "2026-01-08T06:20:31.545746",
  "input_size": 6,
  "hidden_size": 12,
  "learning_rate": 0.01,
  "weights_input_hidden": [
    [
      0.1990790069103241,
      0.010388229042291641,
      0.06176210939884186,
      0.10742311179637909,
      -0.20550279319286346,
      -0.017523881047964096,
      -0.08401976525783539,
      -0.017417773604393005,
      0.2330666482448578,
      0.09822956472635269,
      0.06821150332689285,
      0.11898265779018402
    ],
    [
      0.008201036602258682,
      -0.06378059089183807,
      0.09218606352806091,
      0.043996673077344894,
      0.09197990596294403,
      -0.05092098191380501,
      -0.0036104656755924225,
      -0.05997059494256973,
      -0.06417886167764664,
      -0.10627211630344391,
      -0.13055621087551117,
      -0.13228730857372284
    ],
    [
      0.04361816868185997,
      -0.06976199895143509,
      0.03906071558594704,
      0.1499171257019043,
      -0.03380601480603218,
      0.008657100610435009,
      -0.0776686817407608,
      0.025223776698112488,
      -0.11708055436611176,
      0.0609876774251461,
      -0.016527289524674416,
      0.05400708690285683
    ],
    [
      0.12273772805929184,
      0.023138325661420822,
      0.03822074458003044,
      0.028540804982185364,
      -0.08093314617872238,
      -0.15721073746681213,
      0.14779064059257507,
      -0.16785860061645508,
      -0.10580737888813019,
      0.00950886495411396,
      -0.020077668130397797,
      0.016143057495355606
    ],
    [
      -0.04334268718957901,
      -0.052145373076200485,
      0.1277649849653244,
      0.18989954888820648,
      0.20219166576862335,
      0.06384792923927307,
      0.15274125337600708,
      0.03963474929332733,
      0.05087300017476082,
      0.13080069422721863,
      -0.03175937011837959,
      -0.09778515249490738
    ],
    [
      0.23895226418972015,
      0.1692662239074707,
      -0.00464056059718132,
      0.057478200644254684,
      0.09831444174051285,
      -0.046466704457998276,
      -0.15070268511772156,
      0.1394805610179901,
      -0.03947483003139496,
      -0.05473939701914787,
      0.05538097396492958,
      -0.02562860958278179
    ]
  ],
  "bias_hidden": [
    [
      0.03813047707080841,
      -0.00878998078405857,
      -0.019708294421434402,
      0.09220106154680252,
      -0.017843250185251236,
      0.0,
      -7.253717922139913e-05,
      -0.0004036937025375664,
      0.0,
      0.0206802636384964,
      0.0,
      0.0
    ]
  ],
  "weights_hidden_output": [
    [
      -0.14528723061084747
    ],
    [
      0.12403098493814468
    ],
    [
      -0.004971527960151434
    ],
    [
      -0.25264981389045715
    ],
    [
      0.026185277849435806
    ],
    [
      0.07592111825942993
    ],
    [
      0.1155831590294838
    ],
    [
      -0.16183263063430786
    ],
    [
      0.13087475299835205
    ],
    [
      -0.057783856987953186
    ],
    [
      -0.15231859683990479
    ],
    [
      0.057361453771591187
    ]
  ],
  "bias_output": [
    [
      -0.520132839679718
    ]
  ],
  "training_history_count": 499,
  "epoch_losses": []
}