{
  "timestamp": "2026-01-09T19:21:35.190783",
  "input_size": 6,
  "hidden_size": 12,
  "learning_rate": 0.01,
  "weights_input_hidden": [
    [
      -0.10364318639039993,
      0.05175221711397171,
      -0.086710125207901,
      -0.03246679902076721,
      -0.04851871728897095,
      -0.11560303717851639,
      -0.011540473438799381,
      -0.061830438673496246,
      -0.09360171109437943,
      -0.09001626819372177,
      0.12942425906658173,
      -0.12575896084308624
    ],
    [
      -0.03220268338918686,
      0.04447101429104805,
      0.012096686288714409,
      -0.10954182595014572,
      -0.08273762464523315,
      0.13447099924087524,
      -0.12112140655517578,
      0.05192795768380165,
      -0.14072440564632416,
      0.1855362057685852,
      0.0027998718433082104,
      0.11236728727817535
    ],
    [
      -0.050520140677690506,
      0.04961394891142845,
      -0.20401915907859802,
      0.09568726271390915,
      0.03565385937690735,
      0.01831141486763954,
      -0.1332416832447052,
      0.022301271557807922,
      0.08533871173858643,
      -0.11420605331659317,
      0.010091791860759258,
      0.11447348445653915
    ],
    [
      0.04773712158203125,
      -0.023062177002429962,
      0.15656672418117523,
      -0.0035879486240446568,
      -0.2745899260044098,
      0.06614861637353897,
      -0.2779857814311981,
      -0.057290785014629364,
      -0.16622547805309296,
      0.1890343874692917,
      -0.1263025552034378,
      -0.08978042006492615
    ],
    [
      -0.19938449561595917,
      0.16300749778747559,
      -0.10199441015720367,
      -0.0376741960644722,
      0.019958147779107094,
      0.036761198192834854,
      0.014619756489992142,
      0.11914147436618805,
      -0.09421394765377045,
      -0.08155793696641922,
      0.0257407259196043,
      -0.012173129245638847
    ],
    [
      -0.02196563594043255,
      -0.06278088688850403,
      -0.10680705308914185,
      0.014743288978934288,
      -0.04779332876205444,
      0.001548004918731749,
      0.07369992136955261,
      -0.004268874414265156,
      -0.19972635805606842,
      0.02100171521306038,
      0.015137363225221634,
      -0.19228650629520416
    ]
  ],
  "bias_hidden": [
    [
      0.0,
      0.0021454656962305307,
      0.0,
      0.0,
      0.0,
      0.0024078511632978916,
      0.0,
      0.0005295847076922655,
      0.0,
      -6.231523730093613e-05,
      0.0024372709449380636,
      0.0
    ]
  ],
  "weights_hidden_output": [
    [
      -0.2055342197418213
    ],
    [
      0.06555037945508957
    ],
    [
      -0.03515808284282684
    ],
    [
      0.08911122381687164
    ],
    [
      -0.20926906168460846
    ],
    [
      0.13119709491729736
    ],
    [
      0.06234152615070343
    ],
    [
      0.015894558280706406
    ],
    [
      0.017240876331925392
    ],
    [
      -0.051092181354761124
    ],
    [
      0.07271872460842133
    ],
    [
      -0.028340937569737434
    ]
  ],
  "bias_output": [
    [
      0.03435633331537247
    ]
  ],
  "training_history_count": 3,
  "epoch_losses": []
}