{
  "timestamp": "2026-01-09T19:37:07.688382",
  "input_size": 6,
  "hidden_size": 12,
  "learning_rate": 0.01,
  "weights_input_hidden": [
    [
      -0.10364318639039993,
      0.053471870720386505,
      -0.086710125207901,
      -0.03246679902076721,
      -0.04851871728897095,
      -0.11291792243719101,
      -0.011540473438799381,
      -0.061413463205099106,
      -0.09360171109437943,
      -0.09001626819372177,
      0.13129572570323944,
      -0.12575896084308624
    ],
    [
      -0.03220268338918686,
      0.04504423215985298,
      0.012096686288714409,
      -0.10954182595014572,
      -0.08273762464523315,
      0.1353660523891449,
      -0.12112140655517578,
      0.052066948264837265,
      -0.14072440564632416,
      0.1855362057685852,
      0.0034236861392855644,
      0.11236728727817535
    ],
    [
      -0.050520140677690506,
      0.05117103084921837,
      -0.20401915907859802,
      0.09568726271390915,
      0.03565385937690735,
      0.020742828026413918,
      -0.1332416832447052,
      0.022678790614008904,
      0.08533871173858643,
      -0.11420605331659317,
      0.011785085313022137,
      0.11447348445653915
    ],
    [
      0.04773712158203125,
      -0.02232612669467926,
      0.15656672418117523,
      -0.0035879486240446568,
      -0.2745899260044098,
      0.06749115884304047,
      -0.2779857814311981,
      -0.05711236596107483,
      -0.16622547805309296,
      0.1890343874692917,
      -0.1255006194114685,
      -0.08978042006492615
    ],
    [
      -0.19938449561595917,
      0.1645645797252655,
      -0.10199441015720367,
      -0.0376741960644722,
      0.019958147779107094,
      0.03919261321425438,
      0.014619756489992142,
      0.11951899528503418,
      -0.09421394765377045,
      -0.08155793696641922,
      0.02743401564657688,
      -0.012173129245638847
    ],
    [
      -0.02196563594043255,
      -0.06188433617353439,
      -0.10680705308914185,
      0.014743288978934288,
      -0.04779332876205444,
      0.0029421609360724688,
      0.07369992136955261,
      -0.004051480907946825,
      -0.19972635805606842,
      0.02100171521306038,
      0.016112729907035828,
      -0.19228650629520416
    ]
  ],
  "bias_hidden": [
    [
      0.0,
      0.003865125123411417,
      0.0,
      0.0,
      0.0,
      0.005092956125736237,
      0.0,
      0.0009465504554100335,
      0.0,
      -6.231523730093613e-05,
      0.004308715462684631,
      0.0
    ]
  ],
  "weights_hidden_output": [
    [
      -0.2055342197418213
    ],
    [
      0.07114902138710022
    ],
    [
      -0.03515808284282684
    ],
    [
      0.08911122381687164
    ],
    [
      -0.20926906168460846
    ],
    [
      0.13162153959274292
    ],
    [
      0.06234152615070343
    ],
    [
      0.017356928437948227
    ],
    [
      0.017240876331925392
    ],
    [
      -0.051092181354761124
    ],
    [
      0.07581450790166855
    ],
    [
      -0.028340937569737434
    ]
  ],
  "bias_output": [
    [
      0.05960259586572647
    ]
  ],
  "training_history_count": 10,
  "epoch_losses": []
}