{
  "timestamp": "2026-01-09T18:13:30.906468",
  "input_size": 6,
  "hidden_size": 12,
  "learning_rate": 0.01,
  "weights_input_hidden": [
    [
      -0.10364318639039993,
      0.05104389041662216,
      -0.086710125207901,
      -0.03246679902076721,
      -0.04851871728897095,
      -0.1164022758603096,
      -0.011540473438799381,
      -0.06200346350669861,
      -0.09360171109437943,
      -0.09001626819372177,
      0.128632590174675,
      -0.12575896084308624
    ],
    [
      -0.03220268338918686,
      0.044234905391931534,
      0.012096686288714409,
      -0.10954182595014572,
      -0.08273762464523315,
      0.13420458137989044,
      -0.12112140655517578,
      0.05187027528882027,
      -0.14072440564632416,
      0.1855362057685852,
      0.0025359787978231907,
      0.11236728727817535
    ],
    [
      -0.050520140677690506,
      0.04913382977247238,
      -0.20401915907859802,
      0.09568726271390915,
      0.03565385937690735,
      0.017720011994242668,
      -0.1332416832447052,
      0.022184008732438087,
      0.08533871173858643,
      -0.11420605331659317,
      0.009555228054523468,
      0.11447348445653915
    ],
    [
      0.04773712158203125,
      -0.023416340351104736,
      0.15656672418117523,
      -0.0035879486240446568,
      -0.2745899260044098,
      0.06574900448322296,
      -0.2779857814311981,
      -0.05737729370594025,
      -0.16622547805309296,
      0.1890343874692917,
      -0.12669837474822998,
      -0.08978042006492615
    ],
    [
      -0.19938449561595917,
      0.16252736747264862,
      -0.10199441015720367,
      -0.0376741960644722,
      0.019958147779107094,
      0.03616979345679283,
      0.014619756489992142,
      0.11902421712875366,
      -0.09421394765377045,
      -0.08155793696641922,
      0.025204161182045937,
      -0.012173129245638847
    ],
    [
      -0.02196563594043255,
      -0.06314573436975479,
      -0.10680705308914185,
      0.014743288978934288,
      -0.04779332876205444,
      0.0011335777817294002,
      0.07369992136955261,
      -0.004357997328042984,
      -0.19972635805606842,
      0.02100171521306038,
      0.014729577116668224,
      -0.19228650629520416
    ]
  ],
  "bias_hidden": [
    [
      0.0,
      0.0014371364377439022,
      0.0,
      0.0,
      0.0,
      0.001608610968105495,
      0.0,
      0.00035656028194352984,
      0.0,
      -6.231523730093613e-05,
      0.0016455919248983264,
      0.0
    ]
  ],
  "weights_hidden_output": [
    [
      -0.2055342197418213
    ],
    [
      0.06371085345745087
    ],
    [
      -0.03515808284282684
    ],
    [
      0.08911122381687164
    ],
    [
      -0.20926906168460846
    ],
    [
      0.131169855594635
    ],
    [
      0.06234152615070343
    ],
    [
      0.015667568892240524
    ],
    [
      0.017240876331925392
    ],
    [
      -0.051092181354761124
    ],
    [
      0.07161898910999298
    ],
    [
      -0.028340937569737434
    ]
  ],
  "bias_output": [
    [
      0.023376483470201492
    ]
  ],
  "training_history_count": 2,
  "epoch_losses": []
}