{
  "timestamp": "2026-01-06T17:18:48.099807",
  "input_size": 6,
  "hidden_size": 12,
  "learning_rate": 0.01,
  "weights_input_hidden": [
    [
      0.18000075221061707,
      0.014938637614250183,
      0.07172141224145889,
      0.061170440167188644,
      -0.19652360677719116,
      -0.017523881047964096,
      -0.08401976525783539,
      -0.017417773604393005,
      0.2330666482448578,
      0.08785669505596161,
      0.06821150332689285,
      0.11898265779018402
    ],
    [
      -0.010877064429223537,
      -0.05923017859458923,
      0.10214535146951675,
      -0.0022561245132237673,
      0.10095896571874619,
      -0.05092098191380501,
      -0.0036104656755924225,
      -0.05997059494256973,
      -0.06417886167764664,
      -0.11664498597383499,
      -0.13055621087551117,
      -0.13228730857372284
    ],
    [
      0.02454005740582943,
      -0.06521160900592804,
      0.049019984900951385,
      0.10366424173116684,
      -0.024826906621456146,
      0.008657100610435009,
      -0.0776686817407608,
      0.025223776698112488,
      -0.11708055436611176,
      0.050614871084690094,
      -0.016527289524674416,
      0.05400708690285683
    ],
    [
      0.10365960747003555,
      0.02768874354660511,
      0.04818001389503479,
      -0.017711974680423737,
      -0.07195408642292023,
      -0.15721073746681213,
      0.14779064059257507,
      -0.16785860061645508,
      -0.10580737888813019,
      -0.0008639791631139815,
      -0.020077668130397797,
      0.016143057495355606
    ],
    [
      -0.062420789152383804,
      -0.04759497568011284,
      0.13772419095039368,
      0.14364662766456604,
      0.21117085218429565,
      0.06384792923927307,
      0.15274125337600708,
      0.03963474929332733,
      0.05087300017476082,
      0.12042786180973053,
      -0.03175937011837959,
      -0.09778515249490738
    ],
    [
      0.21987400949001312,
      0.17381662130355835,
      0.005318706389516592,
      0.011225380003452301,
      0.107293501496315,
      -0.046466704457998276,
      -0.15070268511772156,
      0.1394805610179901,
      -0.03947483003139496,
      -0.06511222571134567,
      0.05538097396492958,
      -0.02562860958278179
    ]
  ],
  "bias_hidden": [
    [
      -2.572895391494967e-05,
      0.0003108465170953423,
      0.00021025103342253715,
      -0.0003045444027520716,
      0.00011494247883092612,
      0.0,
      -7.253717922139913e-05,
      -0.0004036937025375664,
      0.0,
      -6.542756455019116e-05,
      0.0,
      0.0
    ]
  ],
  "weights_hidden_output": [
    [
      -0.009244424290955067
    ],
    [
      0.12487465888261795
    ],
    [
      0.08528782427310944
    ],
    [
      -0.12155988812446594
    ],
    [
      0.04636046662926674
    ],
    [
      0.07592111825942993
    ],
    [
      0.1155831590294838
    ],
    [
      -0.16183263063430786
    ],
    [
      0.13087475299835205
    ],
    [
      -0.026142900809645653
    ],
    [
      -0.15231859683990479
    ],
    [
      0.057361453771591187
    ]
  ],
  "bias_output": [
    [
      0.0024914112873375416
    ]
  ],
  "training_history_count": 2,
  "epoch_losses": []
}