{
  "timestamp": "2026-01-14T05:31:05.586671",
  "input_size": 6,
  "hidden_size": 12,
  "learning_rate": 0.01,
  "weights_input_hidden": [
    [
      0.3937128782272339,
      0.010388229042291641,
      0.11043453216552734,
      0.39409151673316956,
      -0.20915986597537994,
      -0.017523881047964096,
      -0.08401976525783539,
      -0.017417773604393005,
      0.2330666482448578,
      0.16462068259716034,
      0.06821150332689285,
      0.11898265779018402
    ],
    [
      0.20282307267189026,
      -0.06378059089183807,
      0.1408517211675644,
      0.3306652009487152,
      0.08832275867462158,
      -0.05092098191380501,
      -0.0036104656755924225,
      -0.05997059494256973,
      -0.06417886167764664,
      -0.03989243879914284,
      -0.13055621087551117,
      -0.13228730857372284
    ],
    [
      0.23824021220207214,
      -0.06976199895143509,
      0.08773340284824371,
      0.4365852177143097,
      -0.0374629981815815,
      0.008657100610435009,
      -0.0776686817407608,
      0.025223776698112488,
      -0.11708055436611176,
      0.1273820996284485,
      -0.016527289524674416,
      0.05400708690285683
    ],
    [
      0.317371666431427,
      0.023138325661420822,
      0.08689343929290771,
      0.31520918011665344,
      -0.08459029346704483,
      -0.15721073746681213,
      0.14779064059257507,
      -0.16785860061645508,
      -0.10580737888813019,
      0.07588627934455872,
      -0.020077668130397797,
      0.016143057495355606
    ],
    [
      0.15127988159656525,
      -0.052145373076200485,
      0.1764305830001831,
      0.47656741738319397,
      0.19853459298610687,
      0.06384792923927307,
      0.15274125337600708,
      0.03963474929332733,
      0.05087300017476082,
      0.19719214737415314,
      -0.03175937011837959,
      -0.09778515249490738
    ],
    [
      0.4335859417915344,
      0.1692662239074707,
      0.044032271951436996,
      0.34414663910865784,
      0.0946572944521904,
      -0.046466704457998276,
      -0.15070268511772156,
      0.1394805610179901,
      -0.03947483003139496,
      0.011640474200248718,
      0.05538097396492958,
      -0.02562860958278179
    ]
  ],
  "bias_hidden": [
    [
      0.4273747205734253,
      -0.00878998078405857,
      0.0776374489068985,
      0.6655377745628357,
      -0.025157278403639793,
      0.0,
      -7.253717922139913e-05,
      -0.0004036937025375664,
      0.0,
      0.15343508124351501,
      0.0,
      0.0
    ]
  ],
  "weights_hidden_output": [
    [
      -0.8070020079612732
    ],
    [
      0.12403098493814468
    ],
    [
      -0.23324717581272125
    ],
    [
      -1.1499649286270142
    ],
    [
      0.023490071296691895
    ],
    [
      0.07592111825942993
    ],
    [
      0.1155831590294838
    ],
    [
      -0.16183263063430786
    ],
    [
      0.13087475299835205
    ],
    [
      -0.2669805884361267
    ],
    [
      -0.15231859683990479
    ],
    [
      0.057361453771591187
    ]
  ],
  "bias_output": [
    [
      -1.4938522577285767
    ]
  ],
  "training_history_count": 620,
  "epoch_losses": [
    6.311037577688694e-05,
    6.310947355814278e-05,
    6.310852040769532e-05,
    6.310762546490878e-05,
    6.310667959041893e-05,
    6.310577737167478e-05,
    6.3104867876973e-05,
    6.310398021014407e-05,
    6.310303433565423e-05,
    6.310213939286768e-05,
    6.310118624242023e-05,
    6.310028402367607e-05,
    6.3099323597271e-05,
    6.309849413810298e-05,
    6.309754826361313e-05,
    6.305088754743338e-05,
    6.304996350081638e-05,
    6.304908310994506e-05,
    6.304815178737044e-05,
    6.304722046479583e-05,
    6.298778316704556e-05,
    6.298695370787755e-05,
    6.298592779785395e-05,
    6.298504013102502e-05,
    6.29841597401537e-05,
    6.298326479736716e-05,
    6.298230437096208e-05,
    6.298149673966691e-05,
    6.298047082964331e-05,
    6.297958316281438e-05,
    6.293359911069274e-05,
    6.293273327173665e-05,
    6.293179467320442e-05,
    6.293095793807879e-05,
    6.293008482316509e-05,
    6.287252472247928e-05,
    6.287165160756558e-05,
    6.287074211286381e-05,
    6.286984717007726e-05,
    6.28689449513331e-05,
    6.286805000854656e-05,
    6.286717689363286e-05,
    6.286625284701586e-05,
    6.286537245614454e-05,
    6.2864477513358e-05,
    6.281936657615006e-05,
    6.281847890932113e-05,
    6.281764945015311e-05,
    6.281676178332418e-05,
    6.281590322032571e-05,
    6.275835039559752e-05,
    6.275752821238711e-05,
    6.27566987532191e-05,
    6.275579653447494e-05,
    6.275484338402748e-05,
    6.275402120081708e-05,
    6.275313353398815e-05,
    6.275222403928638e-05,
    6.27513654762879e-05,
    6.275047053350136e-05,
    6.270542507991195e-05,
    6.270457379287109e-05,
    6.270367885008454e-05,
    6.270279845921323e-05,
    6.270186713663861e-05,
    6.264457624638453e-05,
    6.264368130359799e-05,
    6.264278636081144e-05,
    6.264190596994013e-05,
    6.264101102715358e-05,
    6.264013063628227e-05,
    6.263930117711425e-05,
    6.263836985453963e-05,
    6.263745308388025e-05,
    6.263657269300893e-05,
    6.259168731048703e-05,
    6.259077781578526e-05,
    6.258989014895633e-05,
    6.258900975808501e-05,
    6.258818757487461e-05
  ]
}