{
  "timestamp": "2026-01-08T16:46:21.634783",
  "input_size": 6,
  "hidden_size": 12,
  "learning_rate": 0.01,
  "weights_input_hidden": [
    [
      0.22590409219264984,
      0.010388229042291641,
      0.06549101322889328,
      0.15060727298259735,
      -0.20886988937854767,
      -0.017523881047964096,
      -0.08401976525783539,
      -0.017417773604393005,
      0.2330666482448578,
      0.10816073417663574,
      0.06821150332689285,
      0.11898265779018402
    ],
    [
      0.03502610698342323,
      -0.06378059089183807,
      0.09591498970985413,
      0.08718074858188629,
      0.08861271291971207,
      -0.05092098191380501,
      -0.0036104656755924225,
      -0.05997059494256973,
      -0.06417886167764664,
      -0.09634094685316086,
      -0.13055621087551117,
      -0.13228730857372284
    ],
    [
      0.07044317573308945,
      -0.06976199895143509,
      0.04278967157006264,
      0.19310124218463898,
      -0.03717305138707161,
      0.008657100610435009,
      -0.0776686817407608,
      0.025223776698112488,
      -0.11708055436611176,
      0.07091882079839706,
      -0.016527289524674416,
      0.05400708690285683
    ],
    [
      0.1495627909898758,
      0.023138325661420822,
      0.04194970056414604,
      0.07172489166259766,
      -0.08430033922195435,
      -0.15721073746681213,
      0.14779064059257507,
      -0.16785860061645508,
      -0.10580737888813019,
      0.019440023228526115,
      -0.020077668130397797,
      0.016143057495355606
    ],
    [
      -0.016517627984285355,
      -0.052145373076200485,
      0.13149388134479523,
      0.23308365046977997,
      0.19882456958293915,
      0.06384792923927307,
      0.15274125337600708,
      0.03963474929332733,
      0.05087300017476082,
      0.14073185622692108,
      -0.03175937011837959,
      -0.09778515249490738
    ],
    [
      0.26577743887901306,
      0.1692662239074707,
      -0.0009116186993196607,
      0.10066227614879608,
      0.09494724869728088,
      -0.046466704457998276,
      -0.15070268511772156,
      0.1394805610179901,
      -0.03947483003139496,
      -0.044808223843574524,
      0.05538097396492958,
      -0.02562860958278179
    ]
  ],
  "bias_hidden": [
    [
      0.09178057312965393,
      -0.00878998078405857,
      -0.012250402010977268,
      0.17856913805007935,
      -0.024577371776103973,
      0.0,
      -7.253717922139913e-05,
      -0.0004036937025375664,
      0.0,
      0.04054257273674011,
      0.0,
      0.0
    ]
  ],
  "weights_hidden_output": [
    [
      -0.2508867383003235
    ],
    [
      0.12403098493814468
    ],
    [
      -0.05016578361392021
    ],
    [
      -0.3850468695163727
    ],
    [
      0.0235080998390913
    ],
    [
      0.07592111825942993
    ],
    [
      0.1155831590294838
    ],
    [
      -0.16183263063430786
    ],
    [
      0.13087475299835205
    ],
    [
      -0.08887049555778503
    ],
    [
      -0.15231859683990479
    ],
    [
      0.057361453771591187
    ]
  ],
  "bias_output": [
    [
      -0.7953925728797913
    ]
  ],
  "training_history_count": 463,
  "epoch_losses": []
}