{
  "timestamp": "2026-01-09T19:01:33.386515",
  "input_size": 6,
  "hidden_size": 12,
  "learning_rate": 0.01,
  "weights_input_hidden": [
    [
      -0.10364318639039993,
      0.05135682597756386,
      -0.086710125207901,
      -0.03246679902076721,
      -0.04851871728897095,
      -0.11608192324638367,
      -0.011540473438799381,
      -0.061926696449518204,
      -0.09360171109437943,
      -0.09001626819372177,
      0.12898360192775726,
      -0.12575896084308624
    ],
    [
      -0.03220268338918686,
      0.044339220970869064,
      0.012096686288714409,
      -0.10954182595014572,
      -0.08273762464523315,
      0.13431136310100555,
      -0.12112140655517578,
      0.0518958680331707,
      -0.14072440564632416,
      0.1855362057685852,
      0.0026529838796705008,
      0.11236728727817535
    ],
    [
      -0.050520140677690506,
      0.04934504255652428,
      -0.20401915907859802,
      0.09568726271390915,
      0.03565385937690735,
      0.017960261553525925,
      -0.1332416832447052,
      0.022235816344618797,
      0.08533871173858643,
      -0.11420605331659317,
      0.009792137891054153,
      0.11447348445653915
    ],
    [
      0.04773712158203125,
      -0.023259872570633888,
      0.15656672418117523,
      -0.0035879486240446568,
      -0.2745899260044098,
      0.06590917706489563,
      -0.2779857814311981,
      -0.057338912039995193,
      -0.16622547805309296,
      0.1890343874692917,
      -0.12652286887168884,
      -0.08978042006492615
    ],
    [
      -0.19938449561595917,
      0.16273857653141022,
      -0.10199441015720367,
      -0.0376741960644722,
      0.019958147779107094,
      0.03641004115343094,
      0.014619756489992142,
      0.11907602101564407,
      -0.09421394765377045,
      -0.08155793696641922,
      0.02544107288122177,
      -0.012173129245638847
    ],
    [
      -0.02196563594043255,
      -0.06298387050628662,
      -0.10680705308914185,
      0.014743288978934288,
      -0.04779332876205444,
      0.0013006848748773336,
      0.07369992136955261,
      -0.004318292252719402,
      -0.19972635805606842,
      0.02100171521306038,
      0.014911134727299213,
      -0.19228650629520416
    ]
  ],
  "bias_hidden": [
    [
      0.0,
      0.0017500754911452532,
      0.0,
      0.0,
      0.0,
      0.0019289649790152907,
      0.0,
      0.0004333247197791934,
      0.0,
      -6.231523730093613e-05,
      0.001996606821194291,
      0.0
    ]
  ],
  "weights_hidden_output": [
    [
      -0.2055342197418213
    ],
    [
      0.06452298164367676
    ],
    [
      -0.03515808284282684
    ],
    [
      0.08911122381687164
    ],
    [
      -0.20926906168460846
    ],
    [
      0.13117992877960205
    ],
    [
      0.06234152615070343
    ],
    [
      0.015765856951475143
    ],
    [
      0.017240876331925392
    ],
    [
      -0.051092181354761124
    ],
    [
      0.07210452854633331
    ],
    [
      -0.028340937569737434
    ]
  ],
  "bias_output": [
    [
      0.02826526015996933
    ]
  ],
  "training_history_count": 0,
  "epoch_losses": []
}