{
  "timestamp": "2026-01-14T20:02:38.086900",
  "input_size": 6,
  "hidden_size": 12,
  "learning_rate": 0.01,
  "weights_input_hidden": [
    [
      0.3621780276298523,
      0.010388229042291641,
      0.1013660654425621,
      0.34909921884536743,
      -0.20915986597537994,
      -0.017523881047964096,
      -0.08401976525783539,
      -0.017417773604393005,
      0.2330666482448578,
      0.15416301786899567,
      0.06821150332689285,
      0.11898265779018402
    ],
    [
      0.17129401862621307,
      -0.06378059089183807,
      0.13180024921894073,
      0.2856729030609131,
      0.08832275867462158,
      -0.05092098191380501,
      -0.0036104656755924225,
      -0.05997059494256973,
      -0.06417886167764664,
      -0.05033550411462784,
      -0.13055621087551117,
      -0.13228730857372284
    ],
    [
      0.20671115815639496,
      -0.06976199895143509,
      0.07866493612527847,
      0.39159291982650757,
      -0.0374629981815815,
      0.008657100610435009,
      -0.0776686817407608,
      0.025223776698112488,
      -0.11708055436611176,
      0.11691688001155853,
      -0.016527289524674416,
      0.05400708690285683
    ],
    [
      0.2858368158340454,
      0.023138325661420822,
      0.07782497256994247,
      0.2702168822288513,
      -0.08459029346704483,
      -0.15721073746681213,
      0.14779064059257507,
      -0.16785860061645508,
      -0.10580737888813019,
      0.06544221192598343,
      -0.020077668130397797,
      0.016143057495355606
    ],
    [
      0.11975080519914627,
      -0.052145373076200485,
      0.16737912595272064,
      0.43157511949539185,
      0.19853459298610687,
      0.06384792923927307,
      0.15274125337600708,
      0.03963474929332733,
      0.05087300017476082,
      0.18673448264598846,
      -0.03175937011837959,
      -0.09778515249490738
    ],
    [
      0.40205109119415283,
      0.1692662239074707,
      0.03496415913105011,
      0.2991543412208557,
      0.0946572944521904,
      -0.046466704457998276,
      -0.15070268511772156,
      0.1394805610179901,
      -0.03947483003139496,
      0.0011977155227214098,
      0.05538097396492958,
      -0.02562860958278179
    ]
  ],
  "bias_hidden": [
    [
      0.3643166124820709,
      -0.00878998078405857,
      0.05950121581554413,
      0.5755531787872314,
      -0.025157278403639793,
      0.0,
      -7.253717922139913e-05,
      -0.0004036937025375664,
      0.0,
      0.13254694640636444,
      0.0,
      0.0
    ]
  ],
  "weights_hidden_output": [
    [
      -0.705508291721344
    ],
    [
      0.12403098493814468
    ],
    [
      -0.20171040296554565
    ],
    [
      -1.0080466270446777
    ],
    [
      0.023490071296691895
    ],
    [
      0.07592111825942993
    ],
    [
      0.1155831590294838
    ],
    [
      -0.16183263063430786
    ],
    [
      0.13087475299835205
    ],
    [
      -0.23397593200206757
    ],
    [
      -0.15231859683990479
    ],
    [
      0.057361453771591187
    ]
  ],
  "bias_output": [
    [
      -1.4104467630386353
    ]
  ],
  "training_history_count": 1,
  "epoch_losses": []
}