{
  "timestamp": "2026-01-09T19:16:53.048438",
  "input_size": 6,
  "hidden_size": 12,
  "learning_rate": 0.01,
  "weights_input_hidden": [
    [
      -0.10364318639039993,
      0.05151448771357536,
      -0.086710125207901,
      -0.03246679902076721,
      -0.04851871728897095,
      -0.11592203378677368,
      -0.011540473438799381,
      -0.06188821420073509,
      -0.09360171109437943,
      -0.09001626819372177,
      0.12915968894958496,
      -0.12575896084308624
    ],
    [
      -0.03220268338918686,
      0.04439177364110947,
      0.012096686288714409,
      -0.10954182595014572,
      -0.08273762464523315,
      0.13436466455459595,
      -0.12112140655517578,
      0.0519086979329586,
      -0.14072440564632416,
      0.1855362057685852,
      0.00271167722530663,
      0.11236728727817535
    ],
    [
      -0.050520140677690506,
      0.049447525292634964,
      -0.20401915907859802,
      0.09568726271390915,
      0.03565385937690735,
      0.018072186037898064,
      -0.1332416832447052,
      0.02226082980632782,
      0.08533871173858643,
      -0.11420605331659317,
      0.009906589053571224,
      0.11447348445653915
    ],
    [
      0.04773712158203125,
      -0.023181041702628136,
      0.15656672418117523,
      -0.0035879486240446568,
      -0.2745899260044098,
      0.06598912179470062,
      -0.2779857814311981,
      -0.05731967091560364,
      -0.16622547805309296,
      0.1890343874692917,
      -0.1264348328113556,
      -0.08978042006492615
    ],
    [
      -0.19938449561595917,
      0.1628410667181015,
      -0.10199441015720367,
      -0.0376741960644722,
      0.019958147779107094,
      0.03652196750044823,
      0.014619756489992142,
      0.11910103261470795,
      -0.09421394765377045,
      -0.08155793696641922,
      0.025555523112416267,
      -0.012173129245638847
    ],
    [
      -0.02196563594043255,
      -0.06290338933467865,
      -0.10680705308914185,
      0.014743288978934288,
      -0.04779332876205444,
      0.001382688176818192,
      0.07369992136955261,
      -0.004298646468669176,
      -0.19972635805606842,
      0.02100171521306038,
      0.015001023188233376,
      -0.19228650629520416
    ]
  ],
  "bias_hidden": [
    [
      0.0,
      0.0019077372271567583,
      0.0,
      0.0,
      0.0,
      0.0020888573490083218,
      0.0,
      0.00047180792898871005,
      0.0,
      -6.231523730093613e-05,
      0.0021726868581026793,
      0.0
    ]
  ],
  "weights_hidden_output": [
    [
      -0.2055342197418213
    ],
    [
      0.06491847336292267
    ],
    [
      -0.03515808284282684
    ],
    [
      0.08911122381687164
    ],
    [
      -0.20926906168460846
    ],
    [
      0.1311827301979065
    ],
    [
      0.06234152615070343
    ],
    [
      0.015806876122951508
    ],
    [
      0.017240876331925392
    ],
    [
      -0.051092181354761124
    ],
    [
      0.07234673947095871
    ],
    [
      -0.028340937569737434
    ]
  ],
  "bias_output": [
    [
      0.03070526197552681
    ]
  ],
  "training_history_count": 2,
  "epoch_losses": []
}