{
  "timestamp": "2026-01-09T17:57:28.422476",
  "input_size": 6,
  "hidden_size": 12,
  "learning_rate": 0.01,
  "weights_input_hidden": [
    [
      -0.10364318639039993,
      0.0505811981856823,
      -0.086710125207901,
      -0.03246679902076721,
      -0.04851871728897095,
      -0.11688310652971268,
      -0.011540473438799381,
      -0.06211763992905617,
      -0.09360171109437943,
      -0.0899539515376091,
      0.12810924649238586,
      -0.12575896084308624
    ],
    [
      -0.03220268338918686,
      0.04405486583709717,
      0.012096686288714409,
      -0.10954182595014572,
      -0.08273762464523315,
      0.13399100303649902,
      -0.12112140655517578,
      0.0518258661031723,
      -0.14072440564632416,
      0.18557775020599365,
      0.002332472475245595,
      0.11236728727817535
    ],
    [
      -0.050520140677690506,
      0.04880226403474808,
      -0.20401915907859802,
      0.09568726271390915,
      0.03565385937690735,
      0.017335303127765656,
      -0.1332416832447052,
      0.022102199494838715,
      0.08533871173858643,
      -0.11416243016719818,
      0.009180232882499695,
      0.11447348445653915
    ],
    [
      0.04773712158203125,
      -0.02364768646657467,
      0.15656672418117523,
      -0.0035879486240446568,
      -0.2745899260044098,
      0.06550858914852142,
      -0.2779857814311981,
      -0.057434383779764175,
      -0.16622547805309296,
      0.18906554579734802,
      -0.12696003913879395,
      -0.08978042006492615
    ],
    [
      -0.19938449561595917,
      0.1621958166360855,
      -0.10199441015720367,
      -0.0376741960644722,
      0.019958147779107094,
      0.03578508645296097,
      0.014619756489992142,
      0.11894240230321884,
      -0.09421394765377045,
      -0.08151431381702423,
      0.024829166010022163,
      -0.012173129245638847
    ],
    [
      -0.02196563594043255,
      -0.06338749825954437,
      -0.10680705308914185,
      0.014743288978934288,
      -0.04779332876205444,
      0.0008780208881944418,
      0.07369992136955261,
      -0.004417654126882553,
      -0.19972635805606842,
      0.021033987402915955,
      0.01445614080876112,
      -0.19228650629520416
    ]
  ],
  "bias_hidden": [
    [
      0.0,
      0.0009744417038746178,
      0.0,
      0.0,
      0.0,
      0.001127775525674224,
      0.0,
      0.00024238351034000516,
      0.0,
      0.0,
      0.0011222705943509936,
      0.0
    ]
  ],
  "weights_hidden_output": [
    [
      -0.2055342197418213
    ],
    [
      0.06241980195045471
    ],
    [
      -0.03515808284282684
    ],
    [
      0.08911122381687164
    ],
    [
      -0.20926906168460846
    ],
    [
      0.13109606504440308
    ],
    [
      0.06234152615070343
    ],
    [
      0.015458224341273308
    ],
    [
      0.017240876331925392
    ],
    [
      -0.05109488591551781
    ],
    [
      0.07088841497898102
    ],
    [
      -0.028340937569737434
    ]
  ],
  "bias_output": [
    [
      0.016025451943278313
    ]
  ],
  "training_history_count": 4,
  "epoch_losses": []
}