{
  "timestamp": "2026-01-16T00:50:24.456094",
  "input_size": 6,
  "hidden_size": 12,
  "learning_rate": 0.01,
  "weights_input_hidden": [
    [
      0.24284745752811432,
      0.010388229042291641,
      0.06916455179452896,
      0.17623268067836761,
      -0.20915986597537994,
      -0.017523881047964096,
      -0.08401976525783539,
      -0.017417773604393005,
      0.2330666482448578,
      0.11408648639917374,
      0.06821150332689285,
      0.11898265779018402
    ],
    [
      0.05196407809853554,
      -0.06378059089183807,
      0.09959893673658371,
      0.11280642449855804,
      0.08832275867462158,
      -0.05092098191380501,
      -0.0036104656755924225,
      -0.05997059494256973,
      -0.06417886167764664,
      -0.0904121920466423,
      -0.13055621087551117,
      -0.13228730857372284
    ],
    [
      0.08738117665052414,
      -0.06976199895143509,
      0.04646337032318115,
      0.21872667968273163,
      -0.0374629981815815,
      0.008657100610435009,
      -0.0776686817407608,
      0.025223776698112488,
      -0.11708055436611176,
      0.07684016972780228,
      -0.016527289524674416,
      0.05400708690285683
    ],
    [
      0.1665063351392746,
      0.023138325661420822,
      0.045623406767845154,
      0.09735017269849777,
      -0.08459029346704483,
      -0.15721073746681213,
      0.14779064059257507,
      -0.16785860061645508,
      -0.10580737888813019,
      0.02536548674106598,
      -0.020077668130397797,
      0.016143057495355606
    ],
    [
      0.0004206592566333711,
      -0.052145373076200485,
      0.13517777621746063,
      0.2587088346481323,
      0.19853459298610687,
      0.06384792923927307,
      0.15274125337600708,
      0.03963474929332733,
      0.05087300017476082,
      0.14665798842906952,
      -0.03175937011837959,
      -0.09778515249490738
    ],
    [
      0.28272050619125366,
      0.1692662239074707,
      0.0027625723741948605,
      0.126288041472435,
      0.0946572944521904,
      -0.046466704457998276,
      -0.15070268511772156,
      0.1394805610179901,
      -0.03947483003139496,
      -0.03887901082634926,
      0.05538097396492958,
      -0.02562860958278179
    ]
  ],
  "bias_hidden": [
    [
      0.12565670907497406,
      -0.00878998078405857,
      -0.004901980981230736,
      0.22982020676136017,
      -0.025157278403639793,
      0.0,
      -7.253717922139913e-05,
      -0.0004036937025375664,
      0.0,
      0.05239351838827133,
      0.0,
      0.0
    ]
  ],
  "weights_hidden_output": [
    [
      -0.31121864914894104
    ],
    [
      0.12403098493814468
    ],
    [
      -0.07262500375509262
    ],
    [
      -0.4648633897304535
    ],
    [
      0.023490071296691895
    ],
    [
      0.07592111825942993
    ],
    [
      0.1155831590294838
    ],
    [
      -0.16183263063430786
    ],
    [
      0.13087475299835205
    ],
    [
      -0.10749730467796326
    ],
    [
      -0.15231859683990479
    ],
    [
      0.057361453771591187
    ]
  ],
  "bias_output": [
    [
      -0.9177382588386536
    ]
  ],
  "training_history_count": 98,
  "epoch_losses": [
    0.7523069381713867,
    0.7515864968299866,
    0.7508646249771118,
    0.7501412034034729,
    0.7494163513183594,
    0.7479624152183533,
    0.7472330927848816,
    0.7465022802352905,
    0.7457701563835144,
    0.7450367212295532,
    0.7435654401779175,
    0.7428275346755981,
    0.7420883178710938,
    0.7413477897644043,
    0.7406057715415955,
    0.7391176223754883,
    0.7383714914321899,
    0.7376239895820618,
    0.736875057220459,
    0.7361249327659607,
    0.7346205115318298,
    0.733866274356842,
    0.7331109046936035,
    0.732353925704956,
    0.7315958738327026,
    0.7300756573677063,
    0.7293136119842529,
    0.728550374507904,
    0.7277858853340149,
    0.7270200848579407,
    0.7254845499992371,
    0.7247152328491211,
    0.723944365978241,
    0.7231723070144653,
    0.7223992943763733,
    0.720849335193634,
    0.7200726866722107,
    0.7192946672439575,
    0.7185155749320984,
    0.7177353501319885,
    0.7161713242530823,
    0.7153879404067993,
    0.7146030068397522,
    0.7138171792030334,
    0.7130303978919983,
    0.7114529609680176,
    0.710662841796875,
    0.709871768951416,
    0.7090793251991272,
    0.7082858681678772,
    0.706696093082428,
    0.705899715423584,
    0.7051020264625549,
    0.7043038010597229,
    0.7035045027732849,
    0.7019028067588806,
    0.7011002898216248,
    0.7002969980239868,
    0.699492871761322,
    0.6986876130104065,
    0.697074830532074,
    0.6962670683860779,
    0.6954582929611206,
    0.6946486830711365,
    0.6938381791114807,
    0.6922149062156677,
    0.6914019584655762,
    0.690588116645813,
    0.6897734999656677,
    0.6889579892158508,
    0.6873248815536499,
    0.6865072250366211,
    0.6856884956359863,
    0.6848692297935486,
    0.684049129486084,
    0.6824072003364563,
    0.6815847754478455,
    0.6807622313499451,
    0.6799387335777283,
    0.6791144609451294,
    0.677463948726654,
    0.6766378283500671,
    0.6758110523223877,
    0.6749836206436157,
    0.6741557121276855,
    0.6724977493286133,
    0.6716681718826294,
    0.6708378195762634,
    0.6700067520141602,
    0.6691755056381226,
    0.6675110459327698,
    0.6666780114173889,
    0.665844738483429,
    0.6650108098983765,
    0.6641764044761658,
    0.6625060439109802,
    0.6616701483726501,
    0.6608339548110962,
    0.6599974632263184,
    0.6591601967811584
  ]
}