{
  "timestamp": "2026-01-13T15:19:41.331303",
  "version": 2,
  "input_size": 7,
  "hidden_size": 12,
  "base_learning_rate": 0.01,
  "weights_input_hidden": [
    [
      0.3783038258552551,
      0.010398062877357006,
      0.10599269717931747,
      0.372140496969223,
      -0.20915986597537994,
      -0.017523881047964096,
      -0.08401060104370117,
      -0.017417773604393005,
      0.2330770194530487,
      0.15951089560985565,
      0.06821150332689285,
      0.11898720264434814
    ],
    [
      0.1874329000711441,
      -0.06377216428518295,
      0.13642282783985138,
      0.30872642993927,
      0.08832275867462158,
      -0.05092098191380501,
      -0.0036026109009981155,
      -0.05997059494256973,
      -0.06416996568441391,
      -0.04498658701777458,
      -0.13055621087551117,
      -0.13228340446949005
    ],
    [
      0.22284574806690216,
      -0.06975286453962326,
      0.08329279720783234,
      0.414640337228775,
      -0.0374629981815815,
      0.008657100610435009,
      -0.07766017317771912,
      0.025223776698112488,
      -0.11707092076539993,
      0.1222715750336647,
      -0.016527289524674416,
      0.05401131138205528
    ],
    [
      0.3019540309906006,
      0.023149564862251282,
      0.08244913071393967,
      0.29324594140052795,
      -0.08459029346704483,
      -0.15721073746681213,
      0.14780111610889435,
      -0.16785860061645508,
      -0.10579551756381989,
      0.07078867405653,
      -0.020077668130397797,
      0.01614825427532196
    ],
    [
      0.13588541746139526,
      -0.052136242389678955,
      0.172000452876091,
      0.4546225368976593,
      0.19853459298610687,
      0.06384792923927307,
      0.15274976193904877,
      0.03963474929332733,
      0.05088263377547264,
      0.19208377599716187,
      -0.03175937011837959,
      -0.09778092801570892
    ],
    [
      0.4181854724884033,
      0.16927465796470642,
      0.03959311544895172,
      0.32220786809921265,
      0.0946572944521904,
      -0.046466704457998276,
      -0.1506948322057724,
      0.1394805610179901,
      -0.03946593776345253,
      0.006545928306877613,
      0.05538097396492958,
      -0.02562471106648445
    ],
    [
      0.01900235377252102,
      0.12586738169193268,
      -0.05578935146331787,
      -0.14576831459999084,
      -0.014747923240065575,
      -0.037866055965423584,
      0.15163931250572205,
      -0.15213607251644135,
      0.12680953741073608,
      -0.053694237023591995,
      0.0040959082543849945,
      0.2328985631465912
    ]
  ],
  "bias_hidden": [
    [
      0.3966115117073059,
      -0.008775932714343071,
      0.06876407563686371,
      0.621684730052948,
      -0.025157278403639793,
      0.0,
      -5.9445894294185564e-05,
      -0.0004036937025375664,
      1.4823256606177893e-05,
      0.14325693249702454,
      0.0,
      6.496925834653666e-06
    ]
  ],
  "weights_hidden_output": [
    [
      -0.7575010061264038
    ],
    [
      0.12404179573059082
    ],
    [
      -0.21791395545005798
    ],
    [
      -1.0807082653045654
    ],
    [
      0.023490071296691895
    ],
    [
      0.07592111825942993
    ],
    [
      0.11559779942035675
    ],
    [
      -0.16183263063430786
    ],
    [
      0.13088250160217285
    ],
    [
      -0.2508920133113861
    ],
    [
      -0.15231859683990479
    ],
    [
      0.05737818032503128
    ]
  ],
  "bias_output": [
    [
      -1.454535961151123
    ]
  ],
  "training_history_count": 0,
  "epoch_losses": [],
  "joy_trade_count": 1,
  "total_happiness_earned": 1.2057229404318188
}